FANN_FLO_2.1
num_layers=3
learning_rate=0.600000
connection_rate=1.000000
network_type=0
learning_momentum=0.300000
training_algorithm=2
train_error_function=1
train_stop_function=0
cascade_output_change_fraction=0.010000
quickprop_decay=-0.000100
quickprop_mu=1.750000
rprop_increase_factor=1.200000
rprop_decrease_factor=0.500000
rprop_delta_min=0.000000
rprop_delta_max=50.000000
rprop_delta_zero=0.100000
cascade_output_stagnation_epochs=12
cascade_candidate_change_fraction=0.010000
cascade_candidate_stagnation_epochs=12
cascade_max_out_epochs=150
cascade_max_cand_epochs=150
cascade_num_candidate_groups=2
bit_fail_limit=3.49999999999999980000e-001
cascade_candidate_limit=1.00000000000000000000e+003
cascade_weight_multiplier=4.00000000000000020000e-001
cascade_activation_functions_count=10
cascade_activation_functions=3 5 7 8 10 11 14 15 16 17 
cascade_activation_steepnesses_count=4
cascade_activation_steepnesses=2.50000000000000000000e-001 5.00000000000000000000e-001 7.50000000000000000000e-001 1.00000000000000000000e+000 
layer_sizes=5 4 2 
scale_included=0
neurons (num_inputs, activation_function, activation_steepness)=(0, 0, 0.00000000000000000000e+000) (0, 0, 0.00000000000000000000e+000) (0, 0, 0.00000000000000000000e+000) (0, 0, 0.00000000000000000000e+000) (0, 0, 0.00000000000000000000e+000) (5, 5, 5.00000000000000000000e-001) (5, 5, 5.00000000000000000000e-001) (5, 5, 5.00000000000000000000e-001) (0, 5, 0.00000000000000000000e+000) (4, 5, 5.00000000000000000000e-001) (0, 5, 0.00000000000000000000e+000) 
connections (connected_to_neuron, weight)=(0, 9.74334088538465340000e-002) (1, 3.03057636877674050000e-002) (2, 4.84927184342811010000e-002) (3, -1.12354710037028680000e-002) (4, 6.91895998604404210000e-003) (0, 4.71622489405626320000e-002) (1, 2.23298496300900350000e-002) (2, 1.88358296945070130000e-002) (3, 6.50612171640585920000e-004) (4, 1.44850835146562510000e-002) (0, 5.09227200940477530000e-002) (1, 2.36695527316939000000e-002) (2, 8.09295523770722090000e-003) (3, 1.05422400415593330000e-003) (4, 7.53885146986055500000e-003) (5, -1.08217680121903580000e-001) (6, -5.05927924080370740000e-002) (7, -4.87128780759441690000e-002) (8, -6.26240481305706360000e-003) 
