FANN_FLO_2.1
num_layers=3
learning_rate=0.300000
connection_rate=1.000000
network_type=0
learning_momentum=0.500000
training_algorithm=2
train_error_function=1
train_stop_function=0
cascade_output_change_fraction=0.010000
quickprop_decay=-0.000100
quickprop_mu=1.750000
rprop_increase_factor=1.200000
rprop_decrease_factor=0.500000
rprop_delta_min=0.000000
rprop_delta_max=50.000000
rprop_delta_zero=0.100000
cascade_output_stagnation_epochs=12
cascade_candidate_change_fraction=0.010000
cascade_candidate_stagnation_epochs=12
cascade_max_out_epochs=150
cascade_max_cand_epochs=150
cascade_num_candidate_groups=2
bit_fail_limit=3.49999999999999980000e-001
cascade_candidate_limit=1.00000000000000000000e+003
cascade_weight_multiplier=4.00000000000000020000e-001
cascade_activation_functions_count=10
cascade_activation_functions=3 5 7 8 10 11 14 15 16 17 
cascade_activation_steepnesses_count=4
cascade_activation_steepnesses=2.50000000000000000000e-001 5.00000000000000000000e-001 7.50000000000000000000e-001 1.00000000000000000000e+000 
layer_sizes=12 9 2 
scale_included=0
neurons (num_inputs, activation_function, activation_steepness)=(0, 0, 0.00000000000000000000e+000) (0, 0, 0.00000000000000000000e+000) (0, 0, 0.00000000000000000000e+000) (0, 0, 0.00000000000000000000e+000) (0, 0, 0.00000000000000000000e+000) (0, 0, 0.00000000000000000000e+000) (0, 0, 0.00000000000000000000e+000) (0, 0, 0.00000000000000000000e+000) (0, 0, 0.00000000000000000000e+000) (0, 0, 0.00000000000000000000e+000) (0, 0, 0.00000000000000000000e+000) (0, 0, 0.00000000000000000000e+000) (12, 5, 5.00000000000000000000e-001) (12, 5, 5.00000000000000000000e-001) (12, 5, 5.00000000000000000000e-001) (12, 5, 5.00000000000000000000e-001) (12, 5, 5.00000000000000000000e-001) (12, 5, 5.00000000000000000000e-001) (12, 5, 5.00000000000000000000e-001) (12, 5, 5.00000000000000000000e-001) (0, 5, 0.00000000000000000000e+000) (9, 5, 5.00000000000000000000e-001) (0, 5, 0.00000000000000000000e+000) 
connections (connected_to_neuron, weight)=(0, -5.51363770003202160000e-002) (1, -1.90319430105590530000e-002) (2, 3.29997444464339220000e-002) (3, 2.20909203929483200000e-002) (4, 3.91350003520992120000e-003) (5, 3.94393624318625880000e-003) (6, 1.95927731503077410000e-004) (7, -7.87556025966273080000e-003) (8, 6.98847080369778270000e-002) (9, 2.26751415779437760000e-002) (10, -2.98109389862652930000e-003) (11, 9.32606059890760290000e-003) (0, 7.04304589893761660000e-003) (1, 3.75181598822414740000e-003) (2, 5.83042676365422980000e-003) (3, 1.68363843453866180000e-002) (4, 1.07348895546582820000e-002) (5, 7.87662500130429860000e-003) (6, 1.64184257540622050000e-002) (7, 1.11912783960919980000e-002) (8, 1.21478922988179530000e-002) (9, 1.82600653185345690000e-002) (10, 9.11064795083024220000e-003) (11, 8.76558704330249010000e-003) (0, -3.67818487624734100000e-002) (1, -1.99826465263073240000e-002) (2, 2.96563883283207370000e-002) (3, 2.97314673461616520000e-002) (4, 9.71974933419215980000e-003) (5, 1.09394801798332530000e-003) (6, 7.41361801339802600000e-003) (7, -2.84013259042132210000e-003) (8, 5.00162957217574620000e-002) (9, 2.10419076555994240000e-002) (10, -4.68509006785755580000e-003) (11, 9.35042605698732650000e-003) (0, -1.25885337105227210000e-002) (1, -9.53576390761273940000e-003) (2, 2.48798679733954820000e-002) (3, 2.19637214489469300000e-002) (4, 1.34763157167051910000e-002) (5, 1.52717070078431940000e-002) (6, 1.00077052277594280000e-002) (7, 1.00673718745449840000e-002) (8, 3.57237761110686950000e-002) (9, 1.12377658362842570000e-002) (10, 2.29172896616344510000e-003) (11, 7.78615434174927820000e-003) (0, -7.13783634409170390000e-002) (1, -2.89906579751047640000e-002) (2, 3.82103699125227250000e-002) (3, 3.16038126833913320000e-002) (4, -5.72723600706359200000e-003) (5, -4.34889553876499900000e-003) (6, -1.03747544795821140000e-002) (7, -1.27034201938213170000e-002) (8, 8.94490956340985850000e-002) (9, 1.94673925541707270000e-002) (10, -1.11029240024547880000e-002) (11, 1.55928153518016020000e-003) (0, -5.96592538347382530000e-002) (1, -2.75282188692544260000e-002) (2, 3.43278487741654060000e-002) (3, 3.17103007917053090000e-002) (4, 7.79617107847377800000e-003) (5, 4.21328872514506070000e-004) (6, 1.60024888964581110000e-003) (7, -4.09052538191182450000e-003) (8, 8.26835725072997410000e-002) (9, 1.52891102214522750000e-002) (10, -4.91473905100642000000e-003) (11, 9.53843207532465220000e-003) (0, -8.12298338425707230000e-002) (1, -3.13243394255749010000e-002) (2, 3.53098789104388450000e-002) (3, 3.23357491793498720000e-002) (4, -5.91504249656110360000e-003) (5, -4.22566874211837640000e-003) (6, -9.79583680529869450000e-003) (7, -1.54214442317674710000e-002) (8, 1.02841549156198670000e-001) (9, 2.09575140685101590000e-002) (10, -1.90474245320738440000e-002) (11, 5.97295939604616280000e-003) (0, -5.61536003425461490000e-002) (1, -1.62190164460913540000e-002) (2, 2.40520801939125150000e-002) (3, 3.23892880876253120000e-002) (4, 2.74419104004018250000e-003) (5, 1.42758201856924200000e-003) (6, -6.97149246333575270000e-003) (7, -2.81675025156680370000e-003) (8, 7.17240068657297310000e-002) (9, 1.79615100778079540000e-002) (10, -6.26007892093771640000e-003) (11, 8.59894960112807420000e-003) (12, 5.57473843612469670000e-002) (13, -2.39215414779551850000e-003) (14, 4.05141239125834520000e-002) (15, 1.94919091103872950000e-002) (16, 7.45624872672869950000e-002) (17, 6.36810857633825640000e-002) (18, 8.46641744261339290000e-002) (19, 5.61477318675958490000e-002) (20, 2.24607999547094230000e-002) 
